digraph Tree {
node [shape=box, fontname="helvetica"] ;
edge [fontname="helvetica"] ;
0 [label="x[0] <= 0.752\nsquared_error = 0.211\nsamples = 100\nvalue = 0.012"] ;
1 [label="x[0] <= 0.253\nsquared_error = 0.127\nsamples = 78\nvalue = -0.159"] ;
0 -> 1 [labeldistance=2.5, labelangle=45, headlabel="True"] ;
2 [label="x[0] <= 0.15\nsquared_error = 0.026\nsamples = 30\nvalue = 0.221"] ;
1 -> 2 ;
3 [label="x[0] <= 0.065\nsquared_error = 0.007\nsamples = 12\nvalue = 0.117"] ;
2 -> 3 ;
4 [label="x[0] <= 0.026\nsquared_error = 0.01\nsamples = 5\nvalue = 0.16"] ;
3 -> 4 ;
5 [label="squared_error = 0.0\nsamples = 2\nvalue = 0.046"] ;
4 -> 5 ;
6 [label="squared_error = 0.002\nsamples = 3\nvalue = 0.236"] ;
4 -> 6 ;
7 [label="x[0] <= 0.12\nsquared_error = 0.003\nsamples = 7\nvalue = 0.087"] ;
3 -> 7 ;
8 [label="squared_error = 0.001\nsamples = 5\nvalue = 0.059"] ;
7 -> 8 ;
9 [label="squared_error = 0.0\nsamples = 2\nvalue = 0.155"] ;
7 -> 9 ;
10 [label="x[0] <= 0.237\nsquared_error = 0.027\nsamples = 18\nvalue = 0.291"] ;
2 -> 10 ;
11 [label="x[0] <= 0.169\nsquared_error = 0.015\nsamples = 14\nvalue = 0.352"] ;
10 -> 11 ;
12 [label="squared_error = 0.012\nsamples = 3\nvalue = 0.264"] ;
11 -> 12 ;
13 [label="squared_error = 0.013\nsamples = 11\nvalue = 0.376"] ;
11 -> 13 ;
14 [label="x[0] <= 0.25\nsquared_error = 0.011\nsamples = 4\nvalue = 0.078"] ;
10 -> 14 ;
15 [label="squared_error = 0.003\nsamples = 3\nvalue = 0.13"] ;
14 -> 15 ;
16 [label="squared_error = -0.0\nsamples = 1\nvalue = -0.077"] ;
14 -> 16 ;
17 [label="x[0] <= 0.617\nsquared_error = 0.042\nsamples = 48\nvalue = -0.396"] ;
1 -> 17 ;
18 [label="x[0] <= 0.374\nsquared_error = 0.031\nsamples = 36\nvalue = -0.468"] ;
17 -> 18 ;
19 [label="x[0] <= 0.32\nsquared_error = 0.016\nsamples = 11\nvalue = -0.273"] ;
18 -> 19 ;
20 [label="squared_error = 0.006\nsamples = 4\nvalue = -0.364"] ;
19 -> 20 ;
21 [label="squared_error = 0.015\nsamples = 7\nvalue = -0.221"] ;
19 -> 21 ;
22 [label="x[0] <= 0.411\nsquared_error = 0.014\nsamples = 25\nvalue = -0.553"] ;
18 -> 22 ;
23 [label="squared_error = 0.004\nsamples = 6\nvalue = -0.477"] ;
22 -> 23 ;
24 [label="squared_error = 0.015\nsamples = 19\nvalue = -0.577"] ;
22 -> 24 ;
25 [label="x[0] <= 0.691\nsquared_error = 0.015\nsamples = 12\nvalue = -0.183"] ;
17 -> 25 ;
26 [label="x[0] <= 0.677\nsquared_error = 0.006\nsamples = 5\nvalue = -0.123"] ;
25 -> 26 ;
27 [label="squared_error = 0.002\nsamples = 4\nvalue = -0.156"] ;
26 -> 27 ;
28 [label="squared_error = -0.0\nsamples = 1\nvalue = 0.008"] ;
26 -> 28 ;
29 [label="x[0] <= 0.697\nsquared_error = 0.017\nsamples = 7\nvalue = -0.226"] ;
25 -> 29 ;
30 [label="squared_error = 0.0\nsamples = 1\nvalue = -0.481"] ;
29 -> 30 ;
31 [label="squared_error = 0.008\nsamples = 6\nvalue = -0.183"] ;
29 -> 31 ;
32 [label="x[0] <= 0.884\nsquared_error = 0.041\nsamples = 22\nvalue = 0.616"] ;
0 -> 32 [labeldistance=2.5, labelangle=-45, headlabel="False"] ;
33 [label="x[0] <= 0.857\nsquared_error = 0.012\nsamples = 12\nvalue = 0.771"] ;
32 -> 33 ;
34 [label="x[0] <= 0.777\nsquared_error = 0.011\nsamples = 9\nvalue = 0.805"] ;
33 -> 34 ;
35 [label="x[0] <= 0.767\nsquared_error = 0.006\nsamples = 3\nvalue = 0.715"] ;
34 -> 35 ;
36 [label="squared_error = 0.0\nsamples = 1\nvalue = 0.632"] ;
35 -> 36 ;
37 [label="squared_error = 0.004\nsamples = 2\nvalue = 0.756"] ;
35 -> 37 ;
38 [label="x[0] <= 0.847\nsquared_error = 0.007\nsamples = 6\nvalue = 0.85"] ;
34 -> 38 ;
39 [label="squared_error = 0.005\nsamples = 5\nvalue = 0.826"] ;
38 -> 39 ;
40 [label="squared_error = 0.0\nsamples = 1\nvalue = 0.972"] ;
38 -> 40 ;
41 [label="x[0] <= 0.872\nsquared_error = 0.001\nsamples = 3\nvalue = 0.668"] ;
33 -> 41 ;
42 [label="squared_error = 0.0\nsamples = 2\nvalue = 0.65"] ;
41 -> 42 ;
43 [label="squared_error = -0.0\nsamples = 1\nvalue = 0.704"] ;
41 -> 43 ;
44 [label="x[0] <= 0.932\nsquared_error = 0.014\nsamples = 10\nvalue = 0.43"] ;
32 -> 44 ;
45 [label="x[0] <= 0.911\nsquared_error = 0.015\nsamples = 7\nvalue = 0.393"] ;
44 -> 45 ;
46 [label="x[0] <= 0.902\nsquared_error = 0.001\nsamples = 3\nvalue = 0.457"] ;
45 -> 46 ;
47 [label="squared_error = 0.0\nsamples = 2\nvalue = 0.473"] ;
46 -> 47 ;
48 [label="squared_error = 0.0\nsamples = 1\nvalue = 0.425"] ;
46 -> 48 ;
49 [label="x[0] <= 0.914\nsquared_error = 0.021\nsamples = 4\nvalue = 0.346"] ;
45 -> 49 ;
50 [label="squared_error = 0.0\nsamples = 1\nvalue = 0.162"] ;
49 -> 50 ;
51 [label="squared_error = 0.012\nsamples = 3\nvalue = 0.407"] ;
49 -> 51 ;
52 [label="x[0] <= 0.952\nsquared_error = 0.0\nsamples = 3\nvalue = 0.517"] ;
44 -> 52 ;
53 [label="squared_error = 0.0\nsamples = 1\nvalue = 0.507"] ;
52 -> 53 ;
54 [label="squared_error = 0.0\nsamples = 2\nvalue = 0.522"] ;
52 -> 54 ;
}